{"type":"LSTM","options":{"inputSize":16,"inputRange":16,"hiddenLayers":[10,10],"outputSize":16,"decayRate":0.999,"smoothEps":1e-8,"regc":0.000001,"clipval":5,"maxPredictionLength":100,"dataFormatter":{"values":["feliz",["0"],"contento",["0"],"triste",["1"]],"indexTable":{"0":5,"1":12,"f":0,"e":1,"l":2,"i":3,"z":4,"c":6,"o":7,"n":8,"t":9,"r":10,"s":11,"stop-input":13,"start-output":14,"unrecognized":15},"characterTable":{"0":"f","1":"e","2":"l","3":"i","4":"z","5":"0","6":"c","7":"o","8":"n","9":"t","10":"r","11":"s","12":"1","13":null,"14":null,"15":null},"characters":["f","e","l","i","z","0","c","o","n","t","r","s","1","stop-input","start-output","unrecognized"],"specialIndexes":[13,14,15]}},"input":{"rows":17,"columns":16,"weights":{"0":-0.7750552296638489,"1":-1.0784316062927246,"2":0.24120424687862396,"3":-1.00894033908844,"4":0.9364942908287048,"5":0.008687709458172321,"6":-0.14886122941970825,"7":-0.09254296869039536,"8":1.2385932207107544,"9":-0.0954255536198616,"10":-0.6284395456314087,"11":-0.109764963388443,"12":-0.19413113594055176,"13":0.13768276572227478,"14":0.19950823485851288,"15":-1.909341812133789,"16":1.4402897357940674,"17":1.3293371200561523,"18":-1.5918490886688232,"19":-1.9797842502593994,"20":0.13601042330265045,"21":0.5540182590484619,"22":-0.7039206624031067,"23":-1.2367063760757446,"24":-1.0772173404693604,"25":-1.0959434509277344,"26":-0.8906158804893494,"27":0.561008095741272,"28":-1.3735132217407227,"29":-0.646927535533905,"30":1.3849706649780273,"31":1.8415478467941284,"32":-0.6470439434051514,"33":0.5281521081924438,"34":1.0942039489746094,"35":0.9327026605606079,"36":-0.24519678950309753,"37":-1.2340511083602905,"38":0.23751966655254364,"39":-0.3581993579864502,"40":0.444532185792923,"41":1.1478290557861328,"42":1.3185157775878906,"43":-1.2135591506958008,"44":0.9808336496353149,"45":-0.004222610965371132,"46":0.3171989619731903,"47":-0.41777536273002625,"48":0.5771768093109131,"49":-0.6182345151901245,"50":-0.39000779390335083,"51":0.2289600521326065,"52":0.5021525025367737,"53":0.45816028118133545,"54":0.20454289019107819,"55":0.308668851852417,"56":-0.8300086259841919,"57":-0.727988600730896,"58":-0.923403799533844,"59":0.6594840884208679,"60":-0.7410843372344971,"61":0.36274978518486023,"62":0.9597758054733276,"63":0.2782058119773865,"64":-1.4530987739562988,"65":0.06435704231262207,"66":1.4560348987579346,"67":-0.3062607944011688,"68":-0.1842963844537735,"69":-1.4506008625030518,"70":-0.5923454165458679,"71":-0.6202495694160461,"72":0.5363016128540039,"73":1.373151421546936,"74":1.8710801601409912,"75":-0.5172412991523743,"76":1.8886263370513916,"77":-0.06313622742891312,"78":2.0738985538482666,"79":-0.7810742855072021,"80":-0.503795325756073,"81":1.1867247819900513,"82":-0.4730116128921509,"83":-1.3034021854400635,"84":-1.1280267238616943,"85":-0.9576640725135803,"86":-1.4854199886322021,"87":-1.3112542629241943,"88":0.6562371253967285,"89":0.2615306079387665,"90":0.8054174184799194,"91":-1.0677249431610107,"92":0.6309272646903992,"93":-1.026640772819519,"94":-1.2243901491165161,"95":-0.01975204423069954,"96":0.6508510708808899,"97":0.5996947884559631,"98":-0.9372233748435974,"99":-1.3033320903778076,"100":-0.5495502352714539,"101":0.7793944478034973,"102":-0.9717864394187927,"103":-0.8954544067382812,"104":-1.009629487991333,"105":-1.0193103551864624,"106":-0.6681793928146362,"107":-0.14452151954174042,"108":-0.824317216873169,"109":-1.2201693058013916,"110":0.13726630806922913,"111":0.4372032582759857,"112":3.5936026573181152,"113":-0.25712287425994873,"114":-0.8346438407897949,"115":0.037142351269721985,"116":0.06486508250236511,"117":0.07671543210744858,"118":0.5239681601524353,"119":0.27100950479507446,"120":-2.2893455028533936,"121":-1.67141854763031,"122":-2.528533458709717,"123":0.5281546711921692,"124":-2.585090398788452,"125":0.5492348670959473,"126":1.0906349420547485,"127":1.295905590057373,"128":-0.4422886073589325,"129":0.5883990526199341,"130":-0.23133274912834167,"131":0.12818045914173126,"132":-0.6657775044441223,"133":-0.9994511604309082,"134":0.7867621779441833,"135":0.14952829480171204,"136":0.9294779300689697,"137":1.1103187799453735,"138":1.1891520023345947,"139":-2.730395555496216,"140":0.8653174042701721,"141":-0.21321751177310944,"142":-0.2969984710216522,"143":0.1482260376214981,"144":0.859372079372406,"145":-0.3754081726074219,"146":-1.690731406211853,"147":1.4158926010131836,"148":0.7918767333030701,"149":2.060744285583496,"150":0.6185335516929626,"151":0.5584554672241211,"152":-0.9028651714324951,"153":-1.7527503967285156,"154":-1.3056910037994385,"155":0.31207075715065,"156":-1.5715231895446777,"157":0.23632481694221497,"158":-1.105011224746704,"159":0.2125551551580429,"160":-0.7986270189285278,"161":1.1803419589996338,"162":0.7938376069068909,"163":-1.8693817853927612,"164":-1.1940034627914429,"165":-0.35619473457336426,"166":-0.9956415295600891,"167":-1.461733341217041,"168":0.2758861482143402,"169":0.43629083037376404,"170":-0.9075732231140137,"171":-0.33772048354148865,"172":0.35157355666160583,"173":-1.5627779960632324,"174":0.29086747765541077,"175":-0.7556947469711304,"176":0.19999660551548004,"177":0.5047065019607544,"178":-1.5228744745254517,"179":-1.3895251750946045,"180":1.264525055885315,"181":0.6828321814537048,"182":-0.7286323308944702,"183":-0.45207393169403076,"184":-0.6324818730354309,"185":-1.6015969514846802,"186":-0.8271108865737915,"187":0.9593135714530945,"188":-0.7683182954788208,"189":-0.6758310794830322,"190":-0.41049107909202576,"191":0.3037799894809723,"192":-1.71030592918396,"193":1.8637491464614868,"194":0.8904862999916077,"195":-0.5525590777397156,"196":-1.86505126953125,"197":-1.4726048707962036,"198":-0.04783022776246071,"199":-1.5457936525344849,"200":-0.870298445224762,"201":0.4758639931678772,"202":0.15423819422721863,"203":-1.4421064853668213,"204":0.8007782697677612,"205":-1.6838511228561401,"206":-0.7464839816093445,"207":-1.2822314500808716,"208":1.4906666278839111,"209":0.3492118716239929,"210":-0.17878955602645874,"211":0.5266092419624329,"212":-0.2252792865037918,"213":-1.0531806945800781,"214":2.0361900329589844,"215":1.905522108078003,"216":0.8012222051620483,"217":0.1923527866601944,"218":0.8610736131668091,"219":-0.7982831597328186,"220":-1.2688747644424438,"221":1.866456389427185,"222":-1.871316909790039,"223":1.2438817024230957,"224":1.2931574583053589,"225":0.47900015115737915,"226":-0.9081069231033325,"227":-1.0936228036880493,"228":-0.5054622888565063,"229":0.27658379077911377,"230":-0.4599105715751648,"231":-0.27441322803497314,"232":-1.1306707859039307,"233":-0.9171390533447266,"234":-0.7483590245246887,"235":0.06632214784622192,"236":-0.8039543628692627,"237":0.21787384152412415,"238":0.29087793827056885,"239":1.610033631324768,"240":0.6162306070327759,"241":0.18694144487380981,"242":-0.6156851649284363,"243":-0.49108532071113586,"244":-0.040557872503995895,"245":0.24870194494724274,"246":-0.6979594826698303,"247":-0.5540731549263,"248":-0.8335325717926025,"249":-1.1234722137451172,"250":-1.3718349933624268,"251":0.22922132909297943,"252":-0.7966077327728271,"253":-0.4183114171028137,"254":0.16708983480930328,"255":0.3392900228500366,"256":0.06474193930625916,"257":0.03647882491350174,"258":-0.0037307869642972946,"259":-0.028845027089118958,"260":-0.005848448723554611,"261":0.03150322288274765,"262":0.07474929094314575,"263":0.004896242171525955,"264":0.055255088955163956,"265":0.06372890621423721,"266":-0.051426518708467484,"267":-0.03916860371828079,"268":-0.05965377762913704,"269":-0.06759197264909744,"270":-0.07068093121051788,"271":0.006580875255167484}},"hiddenLayers":[{"inputMatrix":{"rows":10,"columns":16,"weights":{"0":-1.0210742950439453,"1":-0.45586758852005005,"2":0.8915282487869263,"3":-0.664749801158905,"4":-0.23619483411312103,"5":-0.29085829854011536,"6":-0.7182113528251648,"7":-0.4615917503833771,"8":-0.1596604734659195,"9":0.3951704502105713,"10":0.07095841318368912,"11":-0.07601684331893921,"12":0.5666266679763794,"13":-0.561252772808075,"14":0.468271404504776,"15":-1.6980735063552856,"16":0.13807642459869385,"17":1.082507848739624,"18":-0.12446913123130798,"19":-1.7596595287322998,"20":-1.128100037574768,"21":-0.4634976387023926,"22":-1.444359540939331,"23":-1.4712387323379517,"24":-0.5910703539848328,"25":-0.0012494586408138275,"26":0.03661411628127098,"27":-0.346505343914032,"28":0.35436251759529114,"29":-1.0759661197662354,"30":0.9529187083244324,"31":0.8211173415184021,"32":0.6281657814979553,"33":0.23676282167434692,"34":-1.2595666646957397,"35":-0.22762781381607056,"36":-0.14843763411045074,"37":0.6046407222747803,"38":-0.5450190901756287,"39":-0.4488551914691925,"40":-0.8698533177375793,"41":-1.0035260915756226,"42":-0.7021379470825195,"43":-0.03825564682483673,"44":-0.7205927968025208,"45":-0.6634707450866699,"46":0.13465552031993866,"47":0.7607904672622681,"48":-0.0635230764746666,"49":1.0633291006088257,"50":0.08712438493967056,"51":0.5411903858184814,"52":-1.1981616020202637,"53":-1.0838950872421265,"54":0.5743684768676758,"55":-0.464954137802124,"56":0.3134455978870392,"57":0.9729178547859192,"58":1.765338659286499,"59":-1.5015151500701904,"60":1.0199671983718872,"61":0.13811343908309937,"62":0.05956357344985008,"63":0.4243488311767578,"64":0.2801864445209503,"65":1.2224065065383911,"66":-0.18620537221431732,"67":-1.5254650115966797,"68":-1.0866471529006958,"69":-0.3822983503341675,"70":-0.4622781276702881,"71":-0.7592769861221313,"72":-0.5956136584281921,"73":-0.4078172445297241,"74":-0.630942702293396,"75":0.17527063190937042,"76":-0.32788220047950745,"77":-1.0293492078781128,"78":-0.40138956904411316,"79":0.6132469177246094,"80":-0.06637805700302124,"81":0.17460325360298157,"82":-0.42710235714912415,"83":-1.4536254405975342,"84":-0.09112432599067688,"85":0.750676155090332,"86":-0.7946086525917053,"87":-0.8183844089508057,"88":-0.09721020609140396,"89":-0.7931780815124512,"90":-1.392095923423767,"91":0.3176656663417816,"92":-0.5711015462875366,"93":-0.9183269739151001,"94":0.3943854868412018,"95":-0.5067214965820312,"96":-1.7179182767868042,"97":-0.6540088057518005,"98":0.6387351155281067,"99":-0.24315588176250458,"100":0.7309204339981079,"101":-0.17878302931785583,"102":-0.19820040464401245,"103":-0.18421755731105804,"104":1.5778050422668457,"105":0.6675775647163391,"106":0.20649297535419464,"107":-0.0428738035261631,"108":1.0825623273849487,"109":0.2923922538757324,"110":0.4140133857727051,"111":-1.8036037683486938,"112":0.39738959074020386,"113":0.8455986976623535,"114":-0.6599329710006714,"115":-1.021435022354126,"116":-0.9663176536560059,"117":0.21500788629055023,"118":-0.31389546394348145,"119":-0.6777202486991882,"120":-1.0028634071350098,"121":-0.5886316895484924,"122":-0.8457586169242859,"123":-0.14596915245056152,"124":-0.5353843569755554,"125":-0.9391424655914307,"126":-0.6592493653297424,"127":0.532934308052063,"128":0.7233646512031555,"129":0.4024130403995514,"130":-0.5929672122001648,"131":-0.2807815968990326,"132":-0.2928692102432251,"133":0.0017921739490702748,"134":-0.1995018720626831,"135":-0.23083250224590302,"136":-1.029362440109253,"137":-0.7899224758148193,"138":-0.7510249018669128,"139":0.465114563703537,"140":-0.6949023604393005,"141":-0.2808536887168884,"142":-0.21293987333774567,"143":1.1222411394119263,"144":0.30728602409362793,"145":0.9820236563682556,"146":-0.48959600925445557,"147":0.5265781283378601,"148":-1.0671952962875366,"149":-1.5223374366760254,"150":0.15876173973083496,"151":-0.4139741361141205,"152":-0.12587565183639526,"153":0.824161171913147,"154":1.8384629487991333,"155":-1.7116105556488037,"156":1.0050431489944458,"157":-0.2917637526988983,"158":-0.6266964077949524,"159":0.7881879806518555}},"inputHidden":{"rows":10,"columns":10,"weights":{"0":0.9126858115196228,"1":1.1367741823196411,"2":1.2174041271209717,"3":0.057949744164943695,"4":-1.5040839910507202,"5":-1.2386869192123413,"6":0.141632080078125,"7":-0.8049110770225525,"8":1.0600268840789795,"9":-0.006390005350112915,"10":-1.1720585823059082,"11":-0.9557469487190247,"12":0.046626441180706024,"13":-0.8860443830490112,"14":0.8237411379814148,"15":-0.2782798409461975,"16":1.8610222339630127,"17":0.5048182010650635,"18":-0.9405319690704346,"19":0.8173924684524536,"20":-1.0667414665222168,"21":-0.06739068776369095,"22":-0.15339535474777222,"23":-1.4154973030090332,"24":0.23455294966697693,"25":-0.09759754687547684,"26":0.9232539534568787,"27":0.6970155239105225,"28":-0.48760777711868286,"29":1.2381495237350464,"30":1.0193694829940796,"31":0.48242124915122986,"32":-1.388572096824646,"33":-0.12053801864385605,"34":-0.3466469943523407,"35":1.492440938949585,"36":-0.3261840045452118,"37":1.1635338068008423,"38":0.03961830586194992,"39":2.8054492473602295,"40":-1.2742668390274048,"41":0.39682844281196594,"42":-0.2639584541320801,"43":-1.4171288013458252,"44":0.2891985774040222,"45":-0.35352715849876404,"46":0.8303150534629822,"47":0.7691587805747986,"48":-0.9687354564666748,"49":1.1583927869796753,"50":-1.070961356163025,"51":-0.08413625508546829,"52":-0.07474615424871445,"53":-1.1530935764312744,"54":0.04198427498340607,"55":0.03936095908284187,"56":0.9250208139419556,"57":0.7205072641372681,"58":-0.483408659696579,"59":1.6511253118515015,"60":0.25352543592453003,"61":0.16871881484985352,"62":-0.21541498601436615,"63":0.3248484432697296,"64":-0.04037655517458916,"65":0.2558745741844177,"66":0.13287657499313354,"67":-0.22896519303321838,"68":0.0696384385228157,"69":0.08892583101987839,"70":-1.4135099649429321,"71":0.532534658908844,"72":0.14678536355495453,"73":-1.2792326211929321,"74":0.09437067061662674,"75":-0.8045473694801331,"76":0.8137036561965942,"77":0.8693098425865173,"78":-0.3587641417980194,"79":1.0619920492172241,"80":-1.8002310991287231,"81":0.3604692220687866,"82":0.4743013083934784,"83":-1.3519076108932495,"84":0.08175667375326157,"85":-0.6730419993400574,"86":1.5731772184371948,"87":0.7068004012107849,"88":-0.5947349071502686,"89":1.0846664905548096,"90":0.5184328556060791,"91":0.4273962676525116,"92":-1.4391825199127197,"93":-0.4476138651371002,"94":-0.15796594321727753,"95":1.4443104267120361,"96":-0.3952161967754364,"97":0.603633463382721,"98":0.01069157849997282,"99":2.346979856491089}},"inputBias":{"rows":10,"columns":1,"weights":{"0":0.7691807746887207,"1":-0.5886760354042053,"2":0.11592163890600204,"3":-0.7269583940505981,"4":-0.5543822050094604,"5":0.5402554869651794,"6":0.44913583993911743,"7":-0.22487220168113708,"8":-0.9923502802848816,"9":-0.17532777786254883}},"forgetMatrix":{"rows":10,"columns":16,"weights":{"0":-0.7311396598815918,"1":-0.020461084321141243,"2":0.35470104217529297,"3":0.2850053012371063,"4":0.15015308558940887,"5":-0.8248780369758606,"6":0.6112104058265686,"7":0.39183634519577026,"8":1.0690832138061523,"9":0.5750567317008972,"10":0.9388993382453918,"11":-0.11352948099374771,"12":0.6801037788391113,"13":0.2260323166847229,"14":-0.4085664451122284,"15":-0.5419232249259949,"16":0.03541753441095352,"17":-0.8384471535682678,"18":0.2614684998989105,"19":0.22556984424591064,"20":0.3219071924686432,"21":-0.13265322148799896,"22":0.6966504454612732,"23":1.0076560974121094,"24":0.14245301485061646,"25":0.2722281515598297,"26":0.14517492055892944,"27":0.4040463864803314,"28":0.13870364427566528,"29":0.9043369889259338,"30":0.014428864233195782,"31":0.3094695210456848,"32":-0.07799802720546722,"33":0.6284322738647461,"34":-0.183478444814682,"35":0.6775959134101868,"36":0.18542492389678955,"37":-0.5550615191459656,"38":0.5016124248504639,"39":-0.2117161899805069,"40":0.16772228479385376,"41":-0.19952523708343506,"42":0.5721760392189026,"43":-0.43761351704597473,"44":-0.015817992389202118,"45":-0.39231106638908386,"46":-0.5357433557510376,"47":-0.6312628388404846,"48":-0.38689178228378296,"49":0.7428487539291382,"50":0.2800655663013458,"51":-0.06904929876327515,"52":-0.8546115159988403,"53":-0.4542827904224396,"54":0.12408429384231567,"55":-0.5611609816551208,"56":0.06165459007024765,"57":0.42790213227272034,"58":0.20881488919258118,"59":-0.30889737606048584,"60":0.1465620994567871,"61":-0.6819355487823486,"62":-0.42271730303764343,"63":0.5644668936729431,"64":-0.4701663851737976,"65":0.06094519421458244,"66":0.5808265805244446,"67":0.6025093197822571,"68":-0.2872964143753052,"69":-0.837165892124176,"70":1.0054917335510254,"71":0.4994509518146515,"72":0.330377459526062,"73":0.6474172472953796,"74":0.9288811087608337,"75":-0.22132688760757446,"76":0.6468552947044373,"77":0.31951695680618286,"78":0.20288221538066864,"79":-0.3974180519580841,"80":0.13011924922466278,"81":0.8919187784194946,"82":-0.21890248358249664,"83":-0.2629466950893402,"84":-0.40679678320884705,"85":-0.9900214672088623,"86":0.1828645020723343,"87":-0.34564876556396484,"88":-0.14630526304244995,"89":-0.2720935046672821,"90":0.7891626954078674,"91":-0.5321283936500549,"92":0.27086716890335083,"93":-0.21913695335388184,"94":-0.031320374459028244,"95":0.2677886486053467,"96":-0.03257209435105324,"97":0.2165890783071518,"98":-0.2206217646598816,"99":1.174128532409668,"100":-0.2384096384048462,"101":-0.7772656679153442,"102":0.6177895665168762,"103":0.10015129297971725,"104":-1.0730637311935425,"105":0.04781724885106087,"106":1.8281046152114868,"107":-0.5561784505844116,"108":0.38598328828811646,"109":0.32547950744628906,"110":-1.17923903465271,"111":1.0233142375946045,"112":-0.25159505009651184,"113":1.1831228733062744,"114":0.02946510724723339,"115":-0.3349040746688843,"116":-0.5386401414871216,"117":-0.8634415864944458,"118":0.29821133613586426,"119":-0.8786139488220215,"120":0.5352957844734192,"121":-0.013092721812427044,"122":0.40216612815856934,"123":-1.1700048446655273,"124":0.04402521252632141,"125":-0.9188474416732788,"126":-0.5190165638923645,"127":-0.4790259599685669,"128":-0.07573305815458298,"129":0.4385358691215515,"130":0.13899773359298706,"131":0.1830860674381256,"132":-0.3865562081336975,"133":-0.8719223737716675,"134":0.056947723031044006,"135":-0.703239381313324,"136":0.037815771996974945,"137":0.25199559330940247,"138":0.1911083608865738,"139":-0.44172659516334534,"140":0.35894158482551575,"141":-0.6825289130210876,"142":0.252035915851593,"143":-0.23248079419136047,"144":-0.6064473390579224,"145":0.7336081266403198,"146":0.2729572057723999,"147":-0.4757307767868042,"148":-0.7981764674186707,"149":-0.6782658100128174,"150":-0.12637321650981903,"151":-0.6312890648841858,"152":0.4890787899494171,"153":0.6017295718193054,"154":0.2674292325973511,"155":-0.3379155695438385,"156":0.4385892152786255,"157":-0.8189709186553955,"158":-0.4010518789291382,"159":0.010892665944993496}},"forgetHidden":{"rows":10,"columns":10,"weights":{"0":-0.08227449655532837,"1":0.28773170709609985,"2":0.7313241958618164,"3":-0.3900299072265625,"4":-0.4363444447517395,"5":-0.7685533761978149,"6":0.5215499997138977,"7":0.16682490706443787,"8":0.02092854678630829,"9":0.49200963973999023,"10":1.2308546304702759,"11":1.071590781211853,"12":1.1459742784500122,"13":0.5397316813468933,"14":-1.5341863632202148,"15":-0.5360205173492432,"16":-1.0927404165267944,"17":-0.10589303076267242,"18":1.7172683477401733,"19":-0.911297619342804,"20":0.18370509147644043,"21":0.750882625579834,"22":1.7462161779403687,"23":0.255581259727478,"24":-1.2044774293899536,"25":-1.589938759803772,"26":0.1928611546754837,"27":-0.4880533814430237,"28":1.132649302482605,"29":0.008669587783515453,"30":-0.20716741681098938,"31":0.14743727445602417,"32":-0.1883816123008728,"33":-0.4069509208202362,"34":0.40089893341064453,"35":0.07161041349172592,"36":0.46831902861595154,"37":0.32269951701164246,"38":-0.19170957803726196,"39":0.4699895977973938,"40":0.3307589292526245,"41":0.5004620552062988,"42":0.10075835883617401,"43":0.21666203439235687,"44":-0.3778893053531647,"45":-0.35317301750183105,"46":0.07414080947637558,"47":-0.5695478320121765,"48":0.5018132328987122,"49":-0.3461616337299347,"50":-0.2672439217567444,"51":-0.41829362511634827,"52":1.7037153244018555,"53":-0.16202791035175323,"54":-0.7108939290046692,"55":-1.742387294769287,"56":1.6787716150283813,"57":-0.9653434157371521,"58":0.841763973236084,"59":0.7064663767814636,"60":-0.3213905394077301,"61":0.2890002131462097,"62":0.27113333344459534,"63":0.02591472677886486,"64":-0.33811789751052856,"65":0.16639137268066406,"66":0.5184431076049805,"67":-0.7958422303199768,"68":0.3732508420944214,"69":-0.04209679365158081,"70":0.352547287940979,"71":1.468195915222168,"72":0.9440827965736389,"73":0.42474454641342163,"74":-0.791529655456543,"75":-1.218114972114563,"76":-0.6181561946868896,"77":-0.3261410892009735,"78":0.6071772575378418,"79":-0.3787775933742523,"80":-0.03599531948566437,"81":1.0074329376220703,"82":0.7153414487838745,"83":-0.4685763716697693,"84":-0.9774696230888367,"85":-1.0046824216842651,"86":0.47937899827957153,"87":-0.9185389876365662,"88":0.9049195051193237,"89":0.06648257374763489,"90":-0.41534146666526794,"91":-0.04332856461405754,"92":-0.19714002311229706,"93":-0.5335407257080078,"94":0.4407634139060974,"95":0.24026966094970703,"96":0.445721834897995,"97":0.22365285456180573,"98":-0.2336401790380478,"99":0.7797163128852844}},"forgetBias":{"rows":10,"columns":1,"weights":{"0":0,"1":0,"2":0,"3":0,"4":0,"5":0,"6":0,"7":0,"8":0,"9":0}},"outputMatrix":{"rows":10,"columns":16,"weights":{"0":-0.7819857001304626,"1":-0.18722480535507202,"2":0.6244964599609375,"3":-1.0297164916992188,"4":-0.30767154693603516,"5":-0.3140072822570801,"6":-0.35205963253974915,"7":-0.016804590821266174,"8":0.8175849318504333,"9":0.42683708667755127,"10":0.050359174609184265,"11":-0.4312474727630615,"12":0.46990883350372314,"13":-0.03634185343980789,"14":0.16625234484672546,"15":-1.2543957233428955,"16":0.12223555147647858,"17":1.6102153062820435,"18":-0.011611404828727245,"19":-1.6596909761428833,"20":-0.9943733215332031,"21":-0.5246269106864929,"22":-1.3047691583633423,"23":-1.6309624910354614,"24":-0.31023165583610535,"25":0.4707522690296173,"26":0.723654568195343,"27":-1.169927954673767,"28":0.7723271250724792,"29":-0.9849309921264648,"30":0.972398579120636,"31":0.8727577328681946,"32":1.0708904266357422,"33":0.7925506234169006,"34":-1.1584489345550537,"35":0.2003818154335022,"36":-0.592728316783905,"37":-0.4631703495979309,"38":-0.0014627933269366622,"39":-0.3762318789958954,"40":-0.5467899441719055,"41":-0.5174382925033569,"42":0.3484632670879364,"43":-0.8811526894569397,"44":-0.5025852918624878,"45":-0.24389725923538208,"46":-0.5359206199645996,"47":1.55580735206604,"48":-0.26968538761138916,"49":0.8108558654785156,"50":0.35513100028038025,"51":0.525383710861206,"52":-1.1543030738830566,"53":-1.620711326599121,"54":0.6328371167182922,"55":-0.27693670988082886,"56":0.59112548828125,"57":1.2016279697418213,"58":1.7121574878692627,"59":-1.6732258796691895,"60":1.2212471961975098,"61":0.10028907656669617,"62":-0.3668076992034912,"63":0.20145761966705322,"64":-0.20037293434143066,"65":1.7265204191207886,"66":-0.10732841491699219,"67":-1.5373820066452026,"68":-0.6370867490768433,"69":-1.006471037864685,"70":-1.0340718030929565,"71":-1.2893859148025513,"72":0.025804981589317322,"73":0.019542917609214783,"74":0.6947125196456909,"75":-0.1264074295759201,"76":0.5971903800964355,"77":-0.7906335592269897,"78":0.44662174582481384,"79":0.44048845767974854,"80":0.36617016792297363,"81":0.5057286024093628,"82":-0.3362933099269867,"83":-1.1604567766189575,"84":-0.3076353371143341,"85":-0.2748766541481018,"86":-0.10015496611595154,"87":-0.6655681133270264,"88":0.3613412380218506,"89":-0.5140929818153381,"90":-1.2976963520050049,"91":-0.6946478486061096,"92":-0.8931612968444824,"93":-0.6569415926933289,"94":-0.22645674645900726,"95":-0.5110366344451904,"96":-1.545003056526184,"97":-0.44049471616744995,"98":0.5114985704421997,"99":-0.2719424068927765,"100":0.5170629620552063,"101":-0.02252078242599964,"102":-0.6106797456741333,"103":-0.2624620199203491,"104":1.6510628461837769,"105":0.3545936942100525,"106":0.5760493278503418,"107":-0.14416790008544922,"108":0.9072530269622803,"109":0.4388200044631958,"110":0.7497006058692932,"111":-1.4075262546539307,"112":1.1652774810791016,"113":0.6489936113357544,"114":-0.7436127662658691,"115":0.37719064950942993,"116":-0.7751448154449463,"117":-0.21990777552127838,"118":0.11912781000137329,"119":-0.24266637861728668,"120":-1.1629936695098877,"121":-0.3988325595855713,"122":-0.34094712138175964,"123":-0.8333527445793152,"124":-0.6383481621742249,"125":-0.36960139870643616,"126":-0.49994945526123047,"127":1.6174005270004272,"128":0.9818847179412842,"129":0.788529098033905,"130":0.2722647488117218,"131":-0.7087684869766235,"132":-1.7760603427886963,"133":-1.2342382669448853,"134":0.10282426327466965,"135":-0.585016131401062,"136":-0.5902671217918396,"137":0.1794276386499405,"138":-0.3423681855201721,"139":-0.7477481961250305,"140":-0.25202685594558716,"141":-0.10922476649284363,"142":0.92041015625,"143":1.1652357578277588,"144":-0.5681545734405518,"145":0.7295354604721069,"146":1.5702600479125977,"147":0.9644702076911926,"148":-0.669277548789978,"149":-1.335375189781189,"150":0.41523605585098267,"151":-0.02814217284321785,"152":-0.3574458062648773,"153":0.7923429012298584,"154":0.9915172457695007,"155":-0.33281654119491577,"156":0.8468043208122253,"157":0.31136026978492737,"158":0.37230104207992554,"159":-0.5131385922431946}},"outputHidden":{"rows":10,"columns":10,"weights":{"0":0.6949641704559326,"1":1.6412330865859985,"2":1.2252970933914185,"3":-0.20748113095760345,"4":-1.4316070079803467,"5":-1.4985114336013794,"6":0.06925903260707855,"7":-0.759300708770752,"8":1.4428296089172363,"9":0.40721702575683594,"10":-0.8123216032981873,"11":-0.3585374355316162,"12":0.6407788395881653,"13":-1.0181082487106323,"14":0.16186575591564178,"15":-0.8544204235076904,"16":0.9904429316520691,"17":0.3407069444656372,"18":-0.48052778840065,"19":0.6935266256332397,"20":-1.160607933998108,"21":0.207378551363945,"22":0.9399259090423584,"23":-1.043883204460144,"24":0.29550790786743164,"25":-1.1731857061386108,"26":0.9702284932136536,"27":-0.09518050402402878,"28":-0.009693632833659649,"29":0.7610687017440796,"30":0.8487540483474731,"31":0.704059362411499,"32":-0.7196446657180786,"33":0.43385282158851624,"34":-0.3837255835533142,"35":0.85291987657547,"36":-0.3537725806236267,"37":-0.05584856495261192,"38":0.37338948249816895,"39":0.3462103605270386,"40":-0.8787005543708801,"41":0.7679123282432556,"42":0.34683167934417725,"43":-1.3964301347732544,"44":-0.4879968762397766,"45":-0.7331033945083618,"46":1.5770418643951416,"47":0.11098284274339676,"48":0.1379583179950714,"49":1.3219666481018066,"50":-1.3417291641235352,"51":-0.7219803929328918,"52":1.255375862121582,"53":-1.3469268083572388,"54":-0.06216513738036156,"55":-1.243257999420166,"56":1.389886736869812,"57":-0.35121631622314453,"58":-0.022539546713232994,"59":1.7545320987701416,"60":0.2698085606098175,"61":0.33501914143562317,"62":0.021968113258481026,"63":0.8657129406929016,"64":-0.208542138338089,"65":-0.055943284183740616,"66":0.20128047466278076,"67":-0.5381172299385071,"68":0.28150883316993713,"69":-0.1904466152191162,"70":-1.35650634765625,"71":2.2173309326171875,"72":0.6448231935501099,"73":-1.2642289400100708,"74":-0.26737838983535767,"75":-1.4305474758148193,"76":1.1331614255905151,"77":0.023177126422524452,"78":0.13926894962787628,"79":0.898659348487854,"80":-0.1508273482322693,"81":3.094373941421509,"82":0.4638710916042328,"83":-0.9672112464904785,"84":-1.3212852478027344,"85":-1.4306457042694092,"86":0.0019193912157788873,"87":-0.46871379017829895,"88":1.205271601676941,"89":0.6507967710494995,"90":1.656442403793335,"91":1.5645612478256226,"92":-0.20361827313899994,"93":1.0902941226959229,"94":-0.747192919254303,"95":0.6591531038284302,"96":-1.4073560237884521,"97":-1.066632628440857,"98":1.105410099029541,"99":-0.3533174395561218}},"outputBias":{"rows":10,"columns":1,"weights":{"0":1.127077341079712,"1":-0.5972551703453064,"2":-0.017965668812394142,"3":-0.5635941028594971,"4":-0.5408035516738892,"5":0.8413925766944885,"6":0.37844258546829224,"7":-0.3586123287677765,"8":-1.003962755203247,"9":-0.0867561548948288}},"cellActivationMatrix":{"rows":10,"columns":16,"weights":{"0":0.3756566345691681,"1":-1.0308377742767334,"2":-0.26959604024887085,"3":0.19206011295318604,"4":0.9609907269477844,"5":0.4096583127975464,"6":1.0567703247070312,"7":1.0745339393615723,"8":0.27719762921333313,"9":-0.22981733083724976,"10":-0.40738388895988464,"11":0.7661988735198975,"12":-0.7654756903648376,"13":1.0663321018218994,"14":-0.3044051229953766,"15":-0.1217573881149292,"16":0.44834643602371216,"17":0.2510206997394562,"18":-0.49214106798171997,"19":-0.5093215703964233,"20":0.07958971709012985,"21":0.11316584050655365,"22":0.35243892669677734,"23":0.025669218972325325,"24":-0.06407639384269714,"25":-0.5737833976745605,"26":-0.5148091912269592,"27":0.16910596191883087,"28":-0.7678533792495728,"29":0.1465122103691101,"30":-0.28335118293762207,"31":0.34763041138648987,"32":0.6321830153465271,"33":-0.15262070298194885,"34":-0.710732638835907,"35":-0.10435172915458679,"36":0.1575862020254135,"37":1.0276811122894287,"38":-0.19238106906414032,"39":0.06521535664796829,"40":-1.0634404420852661,"41":-1.049687385559082,"42":-0.9498403072357178,"43":0.26545366644859314,"44":-1.1001249551773071,"45":-0.024324318394064903,"46":0.21859194338321686,"47":0.4456467032432556,"48":1.0286282300949097,"49":0.0007498465129174292,"50":-0.8739880919456482,"51":-0.28960227966308594,"52":-0.05268247053027153,"53":-0.08933424204587936,"54":1.0405040979385376,"55":0.5053063631057739,"56":0.1245468482375145,"57":-0.1344243437051773,"58":0.03601713106036186,"59":-0.22564667463302612,"60":-0.5790209770202637,"61":0.7339167594909668,"62":-1.1196192502975464,"63":0.8890073299407959,"64":-0.5076428651809692,"65":0.24325942993164062,"66":0.8047793507575989,"67":-0.019821638241410255,"68":-0.3409614861011505,"69":-0.6308298707008362,"70":-0.017904775217175484,"71":-0.08054926991462708,"72":0.5752878189086914,"73":0.9693529009819031,"74":0.7323877215385437,"75":-0.3355230987071991,"76":0.9810993075370789,"77":-0.2642991244792938,"78":0.24858631193637848,"79":-0.38032522797584534,"80":-0.18947863578796387,"81":-0.7652272582054138,"82":0.19412554800510406,"83":0.914067804813385,"84":0.7443535327911377,"85":-0.4538702964782715,"86":0.6547222137451172,"87":0.7433841228485107,"88":1.1225382089614868,"89":0.6484366655349731,"90":1.521899938583374,"91":0.03069389797747135,"92":0.7029224634170532,"93":0.914181649684906,"94":-0.026576286181807518,"95":-0.14741720259189606,"96":-0.11011601984500885,"97":0.9149658679962158,"98":0.1927100569009781,"99":0.15031643211841583,"100":-0.9624423384666443,"101":-0.7859014868736267,"102":-0.300220251083374,"103":-0.9260091185569763,"104":-0.16101425886154175,"105":0.7576704025268555,"106":0.7216874957084656,"107":-0.6694515347480774,"108":1.1662638187408447,"109":-0.8563982248306274,"110":0.3346634805202484,"111":0.5972253084182739,"112":-0.6557031273841858,"113":0.18816441297531128,"114":0.12265143543481827,"115":-0.14650365710258484,"116":-0.4850163757801056,"117":-0.47715067863464355,"118":-0.30425789952278137,"119":-0.10329510271549225,"120":0.5588526725769043,"121":0.5230844616889954,"122":0.8673152327537537,"123":-0.9285340309143066,"124":1.0582349300384521,"125":-1.166902780532837,"126":-0.6079336404800415,"127":-0.3857906460762024,"128":0.5507184267044067,"129":-0.45666611194610596,"130":-0.39485833048820496,"131":0.28173205256462097,"132":0.6061870455741882,"133":1.0699325799942017,"134":0.13517561554908752,"135":0.2639619708061218,"136":-0.9462683796882629,"137":-0.926631510257721,"138":-1.0303034782409668,"139":0.42527079582214355,"140":-1.1367803812026978,"141":0.3432420790195465,"142":-0.028329528868198395,"143":0.4173997938632965,"144":-0.9126118421554565,"145":0.7366653680801392,"146":0.6028571724891663,"147":0.10354357957839966,"148":-0.6367442607879639,"149":-0.7313919067382812,"150":-0.9953729510307312,"151":-0.8352660536766052,"152":-0.06588056683540344,"153":0.5220099091529846,"154":0.31707024574279785,"155":-0.6326175928115845,"156":0.7048904299736023,"157":-1.03311026096344,"158":0.5009061694145203,"159":-0.37651100754737854}},"cellActivationHidden":{"rows":10,"columns":10,"weights":{"0":-0.3284448981285095,"1":-0.9855128526687622,"2":-0.866377055644989,"3":0.6655490398406982,"4":0.9623984694480896,"5":0.8654080629348755,"6":-0.3727163076400757,"7":0.36013850569725037,"8":-0.3886006474494934,"9":-0.5145726203918457,"10":-1.1101802587509155,"11":-2.1967670917510986,"12":-0.4091346561908722,"13":-0.41828304529190063,"14":1.1712027788162231,"15":0.41864022612571716,"16":0.7676687836647034,"17":0.7026600241661072,"18":-1.2026479244232178,"19":0.583716094493866,"20":-0.1707732379436493,"21":-0.908454179763794,"22":-0.3566384017467499,"23":-0.16316048800945282,"24":0.6749522089958191,"25":0.2695898115634918,"26":-0.056057631969451904,"27":0.44315436482429504,"28":-0.6751221418380737,"29":-0.007961420342326164,"30":-0.3707655370235443,"31":-0.5308266878128052,"32":-0.2568926513195038,"33":0.6900948286056519,"34":0.4445990025997162,"35":0.1938377171754837,"36":0.21478064358234406,"37":0.17363056540489197,"38":-0.352498859167099,"39":-0.49199846386909485,"40":0.13249604403972626,"41":1.0176724195480347,"42":0.1849035769701004,"43":0.020312175154685974,"44":-0.9139730334281921,"45":-0.136039137840271,"46":0.030753498896956444,"47":-0.6035423278808594,"48":0.9306788444519043,"49":0.16977033019065857,"50":0.3782118558883667,"51":0.8855108618736267,"52":0.27972349524497986,"53":0.869214653968811,"54":-0.5100752115249634,"55":-0.21102432906627655,"56":-0.397147536277771,"57":-0.6078106760978699,"58":0.5496987104415894,"59":-1.041095495223999,"60":-0.39001360535621643,"61":0.2865341901779175,"62":0.34802523255348206,"63":-0.5733435750007629,"64":-0.390931636095047,"65":-0.2543982267379761,"66":0.05384077504277229,"67":-0.49950510263442993,"68":0.26590004563331604,"69":0.17796877026557922,"70":-0.5839220285415649,"71":-0.2599147856235504,"72":0.15923799574375153,"73":0.1459248811006546,"74":-0.3101186752319336,"75":-0.27285051345825195,"76":0.13264882564544678,"77":-0.19478921592235565,"78":0.07598905265331268,"79":-0.22831681370735168,"80":0.13605046272277832,"81":0.13204558193683624,"82":0.13003112375736237,"83":0.1743975281715393,"84":0.3648720681667328,"85":-0.08727286010980606,"86":-0.19219155609607697,"87":0.38967862725257874,"88":-0.4330996572971344,"89":0.016728706657886505,"90":-0.1538246124982834,"91":-0.16304996609687805,"92":0.2311454564332962,"93":-0.5930302143096924,"94":-0.24350813031196594,"95":-0.23674269020557404,"96":0.19326715171337128,"97":-0.14029604196548462,"98":-0.024277813732624054,"99":0.4311734735965729}},"cellActivationBias":{"rows":10,"columns":1,"weights":{"0":1.096405029296875,"1":-0.05114586651325226,"2":-0.8859927654266357,"3":-0.35068821907043457,"4":0.44892418384552,"5":1.011817216873169,"6":-0.9684144854545593,"7":1.2078020572662354,"8":-0.5882323980331421,"9":-0.10500939935445786}}},{"inputMatrix":{"rows":10,"columns":10,"weights":{"0":-0.8412268161773682,"1":3.4288015365600586,"2":1.6605918407440186,"3":0.8958885073661804,"4":-2.0230777263641357,"5":-1.6772735118865967,"6":2.5810067653656006,"7":-2.2370429039001465,"8":1.2911275625228882,"9":-1.2344510555267334,"10":-2.438222885131836,"11":-0.606648325920105,"12":1.406198501586914,"13":-2.2804651260375977,"14":0.25495612621307373,"15":-2.3949661254882812,"16":3.284031867980957,"17":-1.3407492637634277,"18":0.5522274971008301,"19":3.0174295902252197,"20":-2.6891374588012695,"21":0.02481759525835514,"22":2.756869077682495,"23":-0.46096575260162354,"24":0.8288745880126953,"25":-3.296811103820801,"26":2.5093507766723633,"27":-0.3901570439338684,"28":0.47310104966163635,"29":0.023783300071954727,"30":-1.2359663248062134,"31":-1.1080868244171143,"32":1.2986538410186768,"33":-1.0040191411972046,"34":-0.07662076503038406,"35":-1.4066686630249023,"36":2.3632779121398926,"37":-2.358060598373413,"38":1.78907310962677,"39":2.0389106273651123,"40":-2.0256011486053467,"41":3.573809862136841,"42":0.6457498669624329,"43":2.50445294380188,"44":-2.1167778968811035,"45":-1.6449464559555054,"46":1.77340829372406,"47":-0.2361719310283661,"48":0.06103513762354851,"49":-1.6993125677108765,"50":-1.3708571195602417,"51":0.49942293763160706,"52":1.2650463581085205,"53":-0.18940554559230804,"54":0.7136122584342957,"55":-2.7054851055145264,"56":1.7738075256347656,"57":-0.9389179348945618,"58":-1.3866584300994873,"59":0.09821367263793945,"60":0.09210853278636932,"61":0.6363534331321716,"62":1.941796898841858,"63":-2.6569113731384277,"64":-1.2037297487258911,"65":-1.7942804098129272,"66":1.6945817470550537,"67":-1.4380658864974976,"68":1.6776783466339111,"69":2.9541006088256836,"70":-0.1524810791015625,"71":3.0677897930145264,"72":1.0611778497695923,"73":-0.017765697091817856,"74":-0.7033020257949829,"75":-1.6642162799835205,"76":1.302383542060852,"77":-1.2628860473632812,"78":1.4552299976348877,"79":-0.08792829513549805,"80":-0.051947154104709625,"81":0.1351560652256012,"82":2.764591693878174,"83":-0.7949070334434509,"84":0.5433868169784546,"85":-4.133951187133789,"86":1.8293640613555908,"87":-1.4229968786239624,"88":2.2067909240722656,"89":0.3020072877407074,"90":-1.586930513381958,"91":0.58641517162323,"92":2.599902868270874,"93":0.21720802783966064,"94":0.8423927426338196,"95":-3.1149790287017822,"96":2.483273983001709,"97":-0.5862520337104797,"98":0.36986199021339417,"99":0.20043101906776428}},"inputHidden":{"rows":10,"columns":10,"weights":{"0":2.3215417861938477,"1":1.5904356241226196,"2":3.051722288131714,"3":-2.6430776119232178,"4":4.101608753204346,"5":1.807636022567749,"6":-2.749412775039673,"7":-4.18362283706665,"8":-1.9581657648086548,"9":0.17800045013427734,"10":-0.11754734069108963,"11":0.6456286907196045,"12":0.8999921679496765,"13":0.543763279914856,"14":0.7172912359237671,"15":-0.39627206325531006,"16":-0.17859692871570587,"17":-0.7051616311073303,"18":-0.7021024823188782,"19":-0.04031415283679962,"20":0.14146718382835388,"21":0.7367107272148132,"22":2.836625576019287,"23":1.5418355464935303,"24":2.1691696643829346,"25":1.300597071647644,"26":-1.3830050230026245,"27":-1.2646503448486328,"28":-1.6937776803970337,"29":-0.8915358185768127,"30":-0.4961410462856293,"31":-0.017243951559066772,"32":0.9036110043525696,"33":-0.8217440247535706,"34":-0.061990316957235336,"35":-0.3849826753139496,"36":0.6498719453811646,"37":-0.8986327648162842,"38":-1.4502938985824585,"39":0.4826440215110779,"40":1.5866180658340454,"41":3.9153244495391846,"42":1.1579407453536987,"43":-1.232127070426941,"44":4.057945251464844,"45":2.5407755374908447,"46":0.4628925025463104,"47":-2.270066738128662,"48":-0.3891151249408722,"49":0.22922049462795258,"50":0.0097240274772048,"51":3.9731414318084717,"52":0.043476931750774384,"53":-3.1936936378479004,"54":0.5374201536178589,"55":0.768355667591095,"56":0.9819239974021912,"57":1.9212030172348022,"58":-0.8770045042037964,"59":-3.2094829082489014,"60":-1.0625157356262207,"61":-0.4936743676662445,"62":-0.5843505263328552,"63":-1.8634696006774902,"64":-2.6597673892974854,"65":1.2969123125076294,"66":0.21052083373069763,"67":-0.5101209282875061,"68":-1.0461387634277344,"69":1.3645175695419312,"70":-0.3497074246406555,"71":1.5313647985458374,"72":1.7813862562179565,"73":-1.1213667392730713,"74":1.2119191884994507,"75":-2.0033786296844482,"76":1.3606140613555908,"77":0.9178762435913086,"78":-0.9985216856002808,"79":-1.9945073127746582,"80":0.9787766337394714,"81":0.9546190500259399,"82":0.5814270973205566,"83":2.6840717792510986,"84":1.4396439790725708,"85":-2.1611242294311523,"86":0.39154568314552307,"87":-1.1544766426086426,"88":-0.3803029954433441,"89":0.6456232070922852,"90":0.6965494751930237,"91":2.9138853549957275,"92":-0.23285454511642456,"93":1.7878081798553467,"94":1.7499669790267944,"95":2.4325342178344727,"96":-4.478364944458008,"97":1.0819871425628662,"98":1.2486673593521118,"99":2.792841672897339}},"inputBias":{"rows":10,"columns":1,"weights":{"0":-1.4838123321533203,"1":0.5432283282279968,"2":-2.0978963375091553,"3":0.3798275589942932,"4":-1.397298812866211,"5":-1.0878974199295044,"6":-0.7399416565895081,"7":-0.38802507519721985,"8":-2.154280185699463,"9":-0.5899823904037476}},"forgetMatrix":{"rows":10,"columns":10,"weights":{"0":1.0092686414718628,"1":-2.863208293914795,"2":1.0886427164077759,"3":0.3699178099632263,"4":1.54478919506073,"5":-0.503624439239502,"6":-1.2451339960098267,"7":-2.4579713344573975,"8":3.3566222190856934,"9":-0.7439173460006714,"10":0.7979351878166199,"11":1.3629398345947266,"12":-2.4841530323028564,"13":0.1268155723810196,"14":0.9190105199813843,"15":1.8293794393539429,"16":-0.5649333596229553,"17":1.4021774530410767,"18":-0.6526479125022888,"19":-0.7118444442749023,"20":-0.33069324493408203,"21":0.17988251149654388,"22":-0.6743556261062622,"23":0.1812458485364914,"24":-1.1946667432785034,"25":0.46074536442756653,"26":0.7380994558334351,"27":0.22574499249458313,"28":-0.6114280819892883,"29":0.16588178277015686,"30":0.5807011723518372,"31":-0.8437040448188782,"32":0.21217750012874603,"33":0.7927713394165039,"34":-0.11274374276399612,"35":0.3869113326072693,"36":-1.1300302743911743,"37":0.47438186407089233,"38":-0.4996006488800049,"39":-0.3873344361782074,"40":-1.3524744510650635,"41":3.5101635456085205,"42":0.41842278838157654,"43":-0.438605397939682,"44":-1.0210915803909302,"45":-1.141215443611145,"46":-0.9479047060012817,"47":-1.4219883680343628,"48":1.3907573223114014,"49":-0.7545447945594788,"50":-2.2342453002929688,"51":-2.4021525382995605,"52":-0.4600669741630554,"53":-1.4302862882614136,"54":2.5215232372283936,"55":0.3733161687850952,"56":1.0122621059417725,"57":0.6250496506690979,"58":-2.0009307861328125,"59":1.3242257833480835,"60":0.5597065687179565,"61":-3.0443577766418457,"62":-0.08496031165122986,"63":2.4759573936462402,"64":1.9803836345672607,"65":0.31206583976745605,"66":-1.3125418424606323,"67":-0.5305467844009399,"68":-0.9908123016357422,"69":-1.795020580291748,"70":0.5187500715255737,"71":-2.5995492935180664,"72":-0.7275068163871765,"73":1.5837057828903198,"74":1.211111068725586,"75":0.4035795331001282,"76":-2.1198596954345703,"77":-0.2526806592941284,"78":-0.06436185538768768,"79":-2.815979242324829,"80":-1.3895251750946045,"81":-0.389517605304718,"82":0.13459016382694244,"83":-1.0309957265853882,"84":0.6714514493942261,"85":-0.8805592656135559,"86":1.4584074020385742,"87":-0.36175644397735596,"88":-3.6861836910247803,"89":1.1191909313201904,"90":-0.20536264777183533,"91":-0.8817503452301025,"92":-0.6875804662704468,"93":1.1813783645629883,"94":1.2325918674468994,"95":0.8666942119598389,"96":-0.750128448009491,"97":1.0417901277542114,"98":-5.140314102172852,"99":-0.9935291409492493}},"forgetHidden":{"rows":10,"columns":10,"weights":{"0":-2.5099856853485107,"1":0.5563979744911194,"2":-1.221463680267334,"3":1.8691720962524414,"4":3.8485991954803467,"5":-3.104356050491333,"6":1.4825211763381958,"7":0.5010223984718323,"8":-2.076551675796509,"9":-0.45554906129837036,"10":0.6083836555480957,"11":2.069140911102295,"12":0.010016298852860928,"13":-2.033360004425049,"14":1.6476680040359497,"15":-1.1516687870025635,"16":1.016527533531189,"17":2.1184794902801514,"18":2.403995990753174,"19":0.05864684656262398,"20":-1.310295581817627,"21":-2.9362590312957764,"22":0.8432856202125549,"23":2.8716630935668945,"24":-1.9514186382293701,"25":3.852172374725342,"26":-1.8290926218032837,"27":-1.6994578838348389,"28":-2.03934907913208,"29":-0.3329524099826813,"30":-1.0249660015106201,"31":2.858318567276001,"32":-2.6136274337768555,"33":-1.0628957748413086,"34":1.568422794342041,"35":-1.6467549800872803,"36":1.4940917491912842,"37":0.9564939141273499,"38":2.0341122150421143,"39":-1.4395009279251099,"40":0.28160354495048523,"41":-0.47898420691490173,"42":-0.403829425573349,"43":1.4920626878738403,"44":-3.806119680404663,"45":-3.271531343460083,"46":2.66351318359375,"47":-0.23980864882469177,"48":-0.5119886994361877,"49":-2.8290226459503174,"50":-0.9140072464942932,"51":-0.737902820110321,"52":1.7584165334701538,"53":0.22008490562438965,"54":-1.4554249048233032,"55":-0.38557949662208557,"56":1.004067301750183,"57":1.2461833953857422,"58":-2.397266387939453,"59":-0.8204571008682251,"60":-0.16636477410793304,"61":-1.4051674604415894,"62":-1.062788963317871,"63":3.2513296604156494,"64":0.9928734302520752,"65":-0.24427320063114166,"66":0.41623857617378235,"67":0.7236180305480957,"68":-0.5434154868125916,"69":-0.928236722946167,"70":-2.3467423915863037,"71":-0.7271077036857605,"72":1.3254872560501099,"73":-2.761861562728882,"74":-2.961730718612671,"75":0.9591130018234253,"76":0.225701704621315,"77":-0.15899412333965302,"78":-0.4090496599674225,"79":-0.008858464658260345,"80":1.100011944770813,"81":2.423091173171997,"82":1.1374989748001099,"83":-3.52286434173584,"84":0.7965044379234314,"85":1.0521607398986816,"86":-0.5694326162338257,"87":0.6538292765617371,"88":-1.115926742553711,"89":0.8953080773353577,"90":0.8084318041801453,"91":0.852735698223114,"92":-1.1284340620040894,"93":-5.217661380767822,"94":-2.8549647331237793,"95":-1.661012053489685,"96":0.3274385631084442,"97":0.15365466475486755,"98":0.6141039729118347,"99":-3.0909736156463623}},"forgetBias":{"rows":10,"columns":1,"weights":{"0":0,"1":0,"2":0,"3":0,"4":0,"5":0,"6":0,"7":0,"8":0,"9":0}},"outputMatrix":{"rows":10,"columns":10,"weights":{"0":-1.793355941772461,"1":1.8746851682662964,"2":1.5920579433441162,"3":-1.6605157852172852,"4":-0.9613310098648071,"5":-1.769218921661377,"6":3.388136148452759,"7":-1.8409764766693115,"8":2.2437355518341064,"9":-0.2016785740852356,"10":-2.5534472465515137,"11":-1.688925862312317,"12":-0.6147083640098572,"13":-1.5757503509521484,"14":0.7544043660163879,"15":-0.8265549540519714,"16":3.3509397506713867,"17":0.40604227781295776,"18":-2.279036045074463,"19":2.494842767715454,"20":-2.553363800048828,"21":-0.42263761162757874,"22":3.114931106567383,"23":0.025152241811156273,"24":0.8038607239723206,"25":-3.936659812927246,"26":2.0599210262298584,"27":-0.44847631454467773,"28":0.13744479417800903,"29":0.007671391125768423,"30":-1.47222101688385,"31":-1.6774190664291382,"32":1.883270502090454,"33":-0.8818370699882507,"34":-0.3725211024284363,"35":-1.7314261198043823,"36":2.5228285789489746,"37":-2.287649154663086,"38":1.9832319021224976,"39":1.6712926626205444,"40":-3.00801682472229,"41":3.5083227157592773,"42":0.3140128254890442,"43":0.906912088394165,"44":-3.2293684482574463,"45":-1.0357340574264526,"46":2.7714197635650635,"47":-0.01036801002919674,"48":-1.1822359561920166,"49":-1.1075302362442017,"50":-2.8326215744018555,"51":-1.1065605878829956,"52":0.3007184863090515,"53":-0.4922577440738678,"54":1.0774874687194824,"55":-0.9113496541976929,"56":3.0527029037475586,"57":0.3580108880996704,"58":-1.2520623207092285,"59":0.836940348148346,"60":-0.032535895705223083,"61":-0.6481469869613647,"62":2.4995503425598145,"63":-0.973748505115509,"64":-0.7699813842773438,"65":-1.7390557527542114,"66":1.809619665145874,"67":-1.9892127513885498,"68":1.6291784048080444,"69":1.8878140449523926,"70":-0.8688119053840637,"71":2.3522610664367676,"72":1.1485906839370728,"73":0.05167711153626442,"74":-0.5318325757980347,"75":-1.5702773332595825,"76":1.2594666481018066,"77":-1.390602469444275,"78":1.574873924255371,"79":-0.3748234808444977,"80":-1.6158998012542725,"81":-0.1598082035779953,"82":2.121553897857666,"83":-0.8586481809616089,"84":-0.02813737466931343,"85":-2.9119043350219727,"86":2.464850425720215,"87":-2.2790160179138184,"88":1.1236579418182373,"89":0.6151000261306763,"90":-2.665621280670166,"91":0.3289359211921692,"92":2.5552353858947754,"93":0.06513108313083649,"94":0.4865747094154358,"95":-2.8918368816375732,"96":3.0497212409973145,"97":-1.2298749685287476,"98":0.5341638326644897,"99":0.7778385281562805}},"outputHidden":{"rows":10,"columns":10,"weights":{"0":-2.1885268688201904,"1":2.2153379917144775,"2":2.887242555618286,"3":1.7381454706192017,"4":1.268044114112854,"5":1.8735966682434082,"6":-4.072138786315918,"7":-0.09749683737754822,"8":-4.433235168457031,"9":0.7163628935813904,"10":-3.0684304237365723,"11":3.446974515914917,"12":2.6737844944000244,"13":-0.7163944244384766,"14":-0.5540270805358887,"15":-0.5211423635482788,"16":0.9627531170845032,"17":0.006742016412317753,"18":-3.302177667617798,"19":-0.9469732046127319,"20":-0.5538761615753174,"21":0.7067188620567322,"22":2.3071792125701904,"23":1.5000429153442383,"24":0.41443488001823425,"25":1.1336051225662231,"26":-0.9134045243263245,"27":-1.712101697921753,"28":-2.4317216873168945,"29":-1.2672789096832275,"30":-0.5447717308998108,"31":0.5659288763999939,"32":1.1149849891662598,"33":-0.7567541599273682,"34":-0.22461490333080292,"35":-0.4939541816711426,"36":1.0000008344650269,"37":-1.0317739248275757,"38":-1.4242609739303589,"39":0.6004193425178528,"40":-1.9386173486709595,"41":4.401560306549072,"42":2.5846641063690186,"43":-1.7808164358139038,"44":-0.396528959274292,"45":-1.3093050718307495,"46":3.0394861698150635,"47":-0.5312550067901611,"48":-1.315483808517456,"49":-3.283381938934326,"50":-2.6860568523406982,"51":3.4690725803375244,"52":2.4187989234924316,"53":-1.5063444375991821,"54":0.3852904140949249,"55":-1.145855188369751,"56":1.579106092453003,"57":-0.23389050364494324,"58":-2.3620357513427734,"59":-2.8560712337493896,"60":-1.1006685495376587,"61":-1.3604799509048462,"62":-0.4312446415424347,"63":1.3324528932571411,"64":-0.6748651266098022,"65":-0.5950295329093933,"66":0.9130647778511047,"67":-0.39074087142944336,"68":-2.2303662300109863,"69":-0.6869267821311951,"70":-0.6208570599555969,"71":2.055661201477051,"72":2.0919060707092285,"73":-0.6570082902908325,"74":0.6579746603965759,"75":-1.970927357673645,"76":1.4418023824691772,"77":0.7557896375656128,"78":-1.488197684288025,"79":-2.1606690883636475,"80":-2.376433849334717,"81":-0.9313944578170776,"82":2.792088270187378,"83":2.9009907245635986,"84":1.490461826324463,"85":-1.1881585121154785,"86":2.3280937671661377,"87":0.8483570218086243,"88":-1.3864113092422485,"89":-0.029699448496103287,"90":0.6641865968704224,"91":0.9688259363174438,"92":2.443504810333252,"93":1.5272830724716187,"94":-0.0134532256051898,"95":0.09595087170600891,"96":-0.753677248954773,"97":-0.8194121718406677,"98":-1.5127068758010864,"99":-0.3685317039489746}},"outputBias":{"rows":10,"columns":1,"weights":{"0":-1.5103098154067993,"1":0.6974170804023743,"2":-2.085043430328369,"3":0.21638274192810059,"4":-1.3784866333007812,"5":-1.0686829090118408,"6":-0.5998307466506958,"7":-0.3933154046535492,"8":-2.2665653228759766,"9":-0.5916118621826172}},"cellActivationMatrix":{"rows":10,"columns":10,"weights":{"0":0.26327845454216003,"1":-4.045385837554932,"2":0.6385189890861511,"3":-1.0012584924697876,"4":2.256957530975342,"5":-0.47537267208099365,"6":-0.013548566959798336,"7":-1.154217004776001,"8":0.4127390384674072,"9":0.8712817430496216,"10":-2.2798044681549072,"11":-1.1475363969802856,"12":-0.3710228502750397,"13":-0.6256585717201233,"14":0.952971339225769,"15":-0.24029697477817535,"16":1.177022933959961,"17":0.7747099995613098,"18":-0.8230730891227722,"19":0.6297891736030579,"20":-1.288330078125,"21":0.08731342852115631,"22":1.2700637578964233,"23":-0.5314204096794128,"24":-0.4743056893348694,"25":-1.3722914457321167,"26":0.5647131204605103,"27":-0.3891144394874573,"28":0.1715480238199234,"29":0.2704869508743286,"30":0.10849616676568985,"31":-0.17294898629188538,"32":-1.0844535827636719,"33":-0.16919082403182983,"34":0.7579149007797241,"35":0.399569034576416,"36":0.9837265014648438,"37":1.313552737236023,"38":-0.6066406965255737,"39":0.41446760296821594,"40":-0.7022629380226135,"41":-0.0014126661699265242,"42":-0.05222199112176895,"43":-1.7154136896133423,"44":-0.2688579261302948,"45":-0.08849047869443893,"46":1.0731110572814941,"47":-0.613580584526062,"48":0.8031960129737854,"49":2.0776584148406982,"50":0.5463877320289612,"51":0.06844081729650497,"52":-0.5781244039535522,"53":-1.5879836082458496,"54":-1.0743038654327393,"55":0.45466700196266174,"56":0.5320553183555603,"57":-0.8479081392288208,"58":0.7486805319786072,"59":0.9898577928543091,"60":0.8214147090911865,"61":1.1872721910476685,"62":1.4838236570358276,"63":1.5084015130996704,"64":-0.7196128368377686,"65":-1.0515567064285278,"66":-1.5867094993591309,"67":-0.5688593983650208,"68":0.7727370858192444,"69":-2.060053586959839,"70":-0.10901810228824615,"71":1.310945987701416,"72":0.75215083360672,"73":1.5487951040267944,"74":0.24150735139846802,"75":-0.9345438480377197,"76":-0.7997210621833801,"77":0.018738236278295517,"78":0.7903012037277222,"79":-1.573357343673706,"80":1.2923569679260254,"81":-1.4371815919876099,"82":-1.2255165576934814,"83":1.3038843870162964,"84":0.0060174232348799706,"85":1.4452526569366455,"86":-0.7346220016479492,"87":0.7025941610336304,"88":-0.23900701105594635,"89":-0.7843093276023865,"90":1.3343676328659058,"91":-2.825483560562134,"92":-0.09182767570018768,"93":0.012520586140453815,"94":1.9028310775756836,"95":0.2534801661968231,"96":-1.2245327234268188,"97":-0.9995638728141785,"98":0.9833351373672485,"99":0.3975314199924469}},"cellActivationHidden":{"rows":10,"columns":10,"weights":{"0":0.5346831679344177,"1":-1.2997256517410278,"2":-0.6007843017578125,"3":0.9582746028900146,"4":-0.6735047101974487,"5":-0.490705281496048,"6":0.44420477747917175,"7":0.14211975038051605,"8":-1.495191216468811,"9":-0.5126039385795593,"10":-1.020361065864563,"11":-0.27141129970550537,"12":1.8299978971481323,"13":0.33043208718299866,"14":-0.1371111273765564,"15":-0.6935110092163086,"16":2.194749593734741,"17":1.5274335145950317,"18":-0.4985637068748474,"19":-0.6279003024101257,"20":-0.5074973106384277,"21":-1.934254765510559,"22":-1.1616616249084473,"23":2.455271005630493,"24":-0.2858579754829407,"25":1.408683180809021,"26":-1.820345163345337,"27":-1.804465413093567,"28":-1.326491355895996,"29":-1.443044662475586,"30":0.005416028201580048,"31":2.3175110816955566,"32":-2.5845232009887695,"33":-0.8349612355232239,"34":-0.1165279820561409,"35":-0.6580044627189636,"36":-2.041912317276001,"37":-1.130507469177246,"38":0.6510080695152283,"39":-0.21520684659481049,"40":2.207597017288208,"41":-3.0110340118408203,"42":-1.0123590230941772,"43":1.277282953262329,"44":1.433761715888977,"45":-0.08513665944337845,"46":0.11821292340755463,"47":-0.2316770702600479,"48":-0.2940206825733185,"49":-1.6484917402267456,"50":-0.7185177803039551,"51":-1.4428431987762451,"52":-1.8041183948516846,"53":2.102221727371216,"54":-1.0001252889633179,"55":-0.5646820068359375,"56":0.186909481883049,"57":0.3445281982421875,"58":-0.07492711395025253,"59":-0.8171239495277405,"60":0.18960000574588776,"61":-0.37301403284072876,"62":-0.2059178352355957,"63":0.793166995048523,"64":0.0003327758749946952,"65":-0.28200411796569824,"66":-1.6126325130462646,"67":-0.020146239548921585,"68":-0.9107986688613892,"69":-0.9568116664886475,"70":1.5144070386886597,"71":-0.5369486808776855,"72":-0.3704875707626343,"73":1.6927987337112427,"74":-0.8323293924331665,"75":-0.5463421940803528,"76":1.5298634767532349,"77":-0.28284016251564026,"78":2.902374505996704,"79":-1.9061832427978516,"80":-2.270442008972168,"81":-0.07984263449907303,"82":1.3305401802062988,"83":1.1329030990600586,"84":-1.253051519393921,"85":1.1999560594558716,"86":2.4570024013519287,"87":1.1896535158157349,"88":0.44302722811698914,"89":-0.4939535856246948,"90":-1.1397137641906738,"91":-2.1812541484832764,"92":-1.352820873260498,"93":2.0327932834625244,"94":0.05523751676082611,"95":0.6482703685760498,"96":-0.05663642659783363,"97":0.031877126544713974,"98":-0.11510074883699417,"99":0.15813370048999786}},"cellActivationBias":{"rows":10,"columns":1,"weights":{"0":-0.19389274716377258,"1":-1.6798090934753418,"2":-0.09717495739459991,"3":0.381286084651947,"4":0.22728495299816132,"5":0.5172597765922546,"6":-1.074616551399231,"7":0.14262518286705017,"8":-0.0307973250746727,"9":0.6324530839920044}}}],"outputConnector":{"rows":17,"columns":10,"weights":{"0":-1.752201795578003,"1":0.3897506892681122,"2":-6.4505391120910645,"3":-5.679381370544434,"4":-4.842428684234619,"5":-3.3706328868865967,"6":-2.367797374725342,"7":5.572210788726807,"8":4.37370491027832,"9":-4.139913558959961,"10":0.8112949132919312,"11":-2.5292952060699463,"12":-6.952142238616943,"13":1.63308846950531,"14":-0.5666106939315796,"15":1.9296778440475464,"16":-0.8881734013557434,"17":-0.6180734038352966,"18":2.7880234718322754,"19":2.253990650177002,"20":-4.217231750488281,"21":2.0302646160125732,"22":1.1428683996200562,"23":-3.8577077388763428,"24":5.2065534591674805,"25":-4.43989372253418,"26":3.170175552368164,"27":6.13090705871582,"28":-3.0544939041137695,"29":-4.023329734802246,"30":-7.081954479217529,"31":1.5602353811264038,"32":-1.435532569885254,"33":-2.427175521850586,"34":5.562361240386963,"35":2.5983853340148926,"36":-3.381988048553467,"37":-2.7626538276672363,"38":-2.023096799850464,"39":1.8815984725952148,"40":-3.567741632461548,"41":-4.083216667175293,"42":2.835857629776001,"43":-1.5487197637557983,"44":-5.012630939483643,"45":-3.064251184463501,"46":2.579317808151245,"47":-3.0953292846679688,"48":-2.364743709564209,"49":-3.09354829788208,"50":-4.496739864349365,"51":1.9653215408325195,"52":2.1502904891967773,"53":-3.278549909591675,"54":-3.3060688972473145,"55":-3.8858871459960938,"56":-4.077885627746582,"57":-4.176473140716553,"58":4.969216346740723,"59":1.5350539684295654,"60":-5.7281928062438965,"61":1.8450918197631836,"62":1.3092750310897827,"63":-1.8342559337615967,"64":-5.7154998779296875,"65":2.929535150527954,"66":2.667008399963379,"67":3.154935359954834,"68":2.93558931350708,"69":2.6507210731506348,"70":0.6652488708496094,"71":-2.7587685585021973,"72":-6.910980701446533,"73":1.6007260084152222,"74":-0.4876016080379486,"75":1.8632128238677979,"76":-0.8879739046096802,"77":-0.6181007623672485,"78":2.8109874725341797,"79":2.5100257396698,"80":9.301253318786621,"81":-0.3834235370159149,"82":2.606410264968872,"83":-3.387296438217163,"84":-1.9681485891342163,"85":-1.2582170963287354,"86":2.1220428943634033,"87":3.7255899906158447,"88":-4.7046895027160645,"89":7.742957592010498,"90":7.030436992645264,"91":2.175325870513916,"92":-9.015748023986816,"93":-2.4580328464508057,"94":3.860785722732544,"95":-3.1599104404449463,"96":-3.505657911300659,"97":-2.7537577152252197,"98":-4.2581329345703125,"99":-1.4100263118743896,"100":4.316086769104004,"101":-2.770991563796997,"102":-1.0002312660217285,"103":1.6680428981781006,"104":2.134246826171875,"105":-0.5701041221618652,"106":-0.8882117867469788,"107":-0.6179978847503662,"108":4.086712837219238,"109":-2.5091824531555176,"110":-0.8438747525215149,"111":3.4443016052246094,"112":4.440335750579834,"113":5.054766654968262,"114":-1.8307175636291504,"115":3.4657530784606934,"116":-7.147521495819092,"117":1.8588707447052002,"118":-2.632920980453491,"119":7.430582523345947,"120":6.107425212860107,"121":1.9705299139022827,"122":1.1986937522888184,"123":-2.5678675174713135,"124":-6.93458366394043,"125":4.8824310302734375,"126":-3.1532540321350098,"127":-2.824862003326416,"128":-2.446460247039795,"129":-3.0389771461486816,"130":2.750704765319824,"131":1.882659912109375,"132":1.6632306575775146,"133":-1.9003764390945435,"134":8.296951293945312,"135":3.726003646850586,"136":2.1757564544677734,"137":0.9071330428123474,"138":4.071370601654053,"139":5.4287428855896,"140":-6.898771286010742,"141":3.9661786556243896,"142":-9.028558731079102,"143":3.5552961826324463,"144":-2.1280179023742676,"145":-4.755492687225342,"146":1.838747501373291,"147":-5.612718105316162,"148":1.2434656620025635,"149":-3.1926064491271973,"150":-4.6375908851623535,"151":-4.610976696014404,"152":0.8041880130767822,"153":7.313288688659668,"154":-1.194252848625183,"155":5.088042736053467,"156":3.0937397480010986,"157":4.757439136505127,"158":-3.2069594860076904,"159":-1.93741774559021,"160":0.3991577625274658,"161":0.8189713954925537,"162":-3.472121477127075,"163":-3.758883476257324,"164":-0.03544062748551369,"165":0.060098547488451004,"166":0.38796353340148926,"167":-0.5301812887191772,"168":0.8378466963768005,"169":0.7780781984329224}},"output":{"rows":17,"columns":1,"weights":{"0":-12.617772102355957,"1":0.5801387429237366,"2":-12.648412704467773,"3":-12.67266845703125,"4":-12.71406364440918,"5":-12.656089782714844,"6":-12.687446594238281,"7":0.5871731638908386,"8":-12.660544395446777,"9":-12.675628662109375,"10":0.5943169593811035,"11":-12.897329330444336,"12":-12.6731595993042,"13":-12.685932159423828,"14":-12.805146217346191,"15":-13.116551399230957,"16":-12.636565208435059}}}